digraph Tree {
node [shape=box] ;
0 [label="Sex_female <= 0.5\ngini = 0.4674\nsamples = 623\nvalue = [391, 232]"] ;
1 [label="Age <= 6.5\ngini = 0.2972\nsamples = 402\nvalue = [329, 73]"] ;
0 -> 1 [labeldistance=2.5, labelangle=45, headlabel="True"] ;
7 [label="SibSp <= 2.5\ngini = 0.48\nsamples = 15\nvalue = [6, 9]"] ;
1 -> 7 ;
9 [label="gini = 0.0\nsamples = 9\nvalue = [0, 9]"] ;
7 -> 9 ;
10 [label="gini = 0.0\nsamples = 6\nvalue = [6, 0]"] ;
7 -> 10 ;
8 [label="Pclass <= 1.5\ngini = 0.2761\nsamples = 387\nvalue = [323, 64]"] ;
1 -> 8 ;
11 [label="gini = 0.4308\nsamples = 86\nvalue = [59, 27]"] ;
8 -> 11 ;
12 [label="gini = 0.2156\nsamples = 301\nvalue = [264, 37]"] ;
8 -> 12 ;
2 [label="Pclass <= 2.5\ngini = 0.4037\nsamples = 221\nvalue = [62, 159]"] ;
0 -> 2 [labeldistance=2.5, labelangle=-45, headlabel="False"] ;
3 [label="gini = 0.0981\nsamples = 116\nvalue = [6, 110]"] ;
2 -> 3 ;
4 [label="Fare <= 24.8083\ngini = 0.4978\nsamples = 105\nvalue = [56, 49]"] ;
2 -> 4 ;
5 [label="gini = 0.4929\nsamples = 84\nvalue = [37, 47]"] ;
4 -> 5 ;
6 [label="gini = 0.1723\nsamples = 21\nvalue = [19, 2]"] ;
4 -> 6 ;
}